digraph Tree {
node [shape=box] ;
0 [label="X[0] <= 6.838\nmse = 85.144\nsamples = 404\nvalue = 22.612"] ;
1 [label="X[0] <= 6.547\nmse = 37.652\nsamples = 329\nvalue = 19.606"] ;
0 -> 1 [labeldistance=2.5, labelangle=45, headlabel="True"] ;
2 [label="X[0] <= 5.858\nmse = 28.397\nsamples = 281\nvalue = 18.633"] ;
1 -> 2 ;
3 [label="X[0] <= 3.85\nmse = 37.047\nsamples = 87\nvalue = 16.261"] ;
2 -> 3 ;
4 [label="mse = 0.0\nsamples = 1\nvalue = 27.5"] ;
3 -> 4 ;
5 [label="mse = 35.991\nsamples = 86\nvalue = 16.13"] ;
3 -> 5 ;
6 [label="X[0] <= 6.542\nmse = 20.862\nsamples = 194\nvalue = 19.697"] ;
2 -> 6 ;
7 [label="mse = 20.567\nsamples = 193\nvalue = 19.742"] ;
6 -> 7 ;
8 [label="mse = -0.0\nsamples = 1\nvalue = 10.9"] ;
6 -> 8 ;
9 [label="X[0] <= 6.82\nmse = 53.872\nsamples = 48\nvalue = 25.3"] ;
1 -> 9 ;
10 [label="X[0] <= 6.797\nmse = 46.774\nsamples = 45\nvalue = 25.751"] ;
9 -> 10 ;
11 [label="mse = 46.299\nsamples = 42\nvalue = 25.262"] ;
10 -> 11 ;
12 [label="mse = 3.167\nsamples = 3\nvalue = 32.6"] ;
10 -> 12 ;
13 [label="X[0] <= 6.825\nmse = 111.509\nsamples = 3\nvalue = 18.533"] ;
9 -> 13 ;
14 [label="mse = 0.0\nsamples = 1\nvalue = 8.4"] ;
13 -> 14 ;
15 [label="mse = 90.25\nsamples = 2\nvalue = 23.6"] ;
13 -> 15 ;
16 [label="X[0] <= 7.437\nmse = 79.942\nsamples = 75\nvalue = 35.799"] ;
0 -> 16 [labeldistance=2.5, labelangle=-45, headlabel="False"] ;
17 [label="X[0] <= 7.015\nmse = 40.388\nsamples = 51\nvalue = 31.502"] ;
16 -> 17 ;
18 [label="X[0] <= 6.941\nmse = 40.591\nsamples = 21\nvalue = 29.462"] ;
17 -> 18 ;
19 [label="mse = 7.805\nsamples = 8\nvalue = 28.1"] ;
18 -> 19 ;
20 [label="mse = 58.923\nsamples = 13\nvalue = 30.3"] ;
18 -> 20 ;
21 [label="X[0] <= 7.02\nmse = 35.293\nsamples = 30\nvalue = 32.93"] ;
17 -> 21 ;
22 [label="mse = 0.0\nsamples = 1\nvalue = 50.0"] ;
21 -> 22 ;
23 [label="mse = 26.116\nsamples = 29\nvalue = 32.341"] ;
21 -> 23 ;
24 [label="X[0] <= 8.742\nmse = 41.398\nsamples = 24\nvalue = 44.929"] ;
16 -> 24 ;
25 [label="X[0] <= 7.826\nmse = 19.137\nsamples = 23\nvalue = 45.93"] ;
24 -> 25 ;
26 [label="mse = 13.338\nsamples = 11\nvalue = 43.618"] ;
25 -> 26 ;
27 [label="mse = 15.059\nsamples = 12\nvalue = 48.05"] ;
25 -> 27 ;
28 [label="mse = -0.0\nsamples = 1\nvalue = 21.9"] ;
24 -> 28 ;
}